svm_type c_svc
kernel_type polynomial
degree 2
gamma 1
coef0 1
nr_class 2
total_sv 1106
rho 1.00347
label 1 -1
nr_sv 542 564
SV
100 1:0.44066992 2:-4.3504375 
100 1:0.27822461 2:-4.0888125 
100 1:0.28741406 2:-4.3654375 
100 1:0.18921094 2:-3.328375 
100 1:0.34156641 2:-4.8388125 
100 1:0.28816211 2:-3.75325 
100 1:0.42295508 2:-4.58325 
100 1:0.35011133 2:-4.5961875 
100 1:0.30645703 2:-2.082 
100 1:0.33792773 2:-3.1846875 
100 1:0.41233789 2:-5.5705 
100 1:0.35138672 2:-4.4420625 
100 1:0.24904883 2:-4.0290625 
100 1:0.26214258 2:-4.100125 
100 1:0.27826172 2:-4.4676875 
100 1:0.33248828 2:-2.502 
100 1:0.36280664 2:-5.8456875 
100 1:0.35701172 2:-4.0114375 
100 1:0.33430859 2:-3.2810625 
100 1:0.29611523 2:-5.2068125 
100 1:0.32277539 2:-3.7033125 
100 1:0.33418555 2:-2.956375 
100 1:0.16690234 2:-2.8409375 
100 1:0.33725781 2:-3.869 
100 1:0.25451758 2:-1.7416875 
100 1:0.30048633 2:-3.50575 
100 1:0.24953906 2:-2.5758125 
100 1:0.2707207 2:-4.2679375 
100 1:0.37868359 2:-4.4215 
100 1:0.22776367 2:-2.785125 
100 1:0.33098047 2:-2.8483125 
100 1:0.39789844 2:-2.9333125 
100 1:0.31657031 2:-3.592375 
100 1:0.21885156 2:-1.7906875 
100 1:0.31800195 2:-2.7066875 
100 1:0.19188281 2:-2.0279375 
100 1:0.17126758 2:-2.6516875 
100 1:0.29497461 2:-2.2556875 
100 1:0.28387305 2:-3.2044375 
100 1:0.40943945 2:-2.8265625 
100 1:0.20573242 2:-2.702 
100 1:0.34373047 2:-3.911375 
100 1:0.24505859 2:-3.2475 
100 1:0.26678516 2:-2.513375 
100 1:0.25408203 2:-4.2065 
100 1:0.3456543 2:-3.2239375 
100 1:0.24648828 2:-3.09025 
100 1:0.19146289 2:-3.1794375 
100 1:0.32058789 2:-2.162375 
100 1:0.343625 2:-3.1510625 
100 1:0.30064063 2:-4.62675 
100 1:0.25929492 2:-3.3233125 
100 1:0.23530273 2:-1.1014375 
100 1:0.28984375 2:-4.7261875 
100 1:0.25291602 2:-4.2434375 
100 1:0.20922266 2:-2.4875625 
100 1:0.18249414 2:-3.0206875 
100 1:0.2452207 2:-4.069625 
100 1:0.47007031 2:-3.4156875 
100 1:0.25875391 2:-3.735125 
100 1:0.25331055 2:-5.259125 
100 1:0.33484375 2:-4.3180625 
100 1:0.19809375 2:-3.069 
100 1:0.23054297 2:-3.08525 
100 1:0.22968555 2:-4.1193125 
100 1:0.39870508 2:-6.2614375 
100 1:0.33263477 2:-5.3505 
100 1:0.25126563 2:-2.5884375 
100 1:0.28254102 2:-2.7315 
100 1:0.24461719 2:-3.759875 
100 1:0.30981836 2:-2.747 
100 1:0.25489844 2:-3.386625 
100 1:0.28346094 2:-1.1570625 
100 1:0.26345898 2:-4.1485 
100 1:0.28462109 2:-2.889125 
100 1:0.1962832 2:-2.790375 
100 1:0.16263086 2:-2.6108125 
100 1:0.17793555 2:-1.9318125 
100 1:0.28441602 2:-4.591875 
100 1:0.29831641 2:-1.8839375 
100 1:0.32322461 2:-4.9383125 
100 1:0.22491602 2:-2.3835 
100 1:0.29147852 2:-2.597125 
100 1:0.19753516 2:-3.424375 
100 1:0.27897461 2:-2.5580625 
100 1:0.43238867 2:-2.8535625 
100 1:0.32033984 2:-3.4545625 
100 1:0.27245117 2:-3.922625 
100 1:0.12591406 2:-1.9669375 
100 1:0.23814258 2:-3.4095 
100 1:0.3985957 2:-4.82175 
100 1:0.24329297 2:-3.091 
100 1:0.25313672 2:-2.7315 
100 1:0.27132227 2:-3.500875 
100 1:0.35445117 2:-2.0418125 
100 1:0.31777148 2:-5.3259375 
100 1:0.41664844 2:-5.8334375 
100 1:0.37456445 2:-3.8265 
100 1:0.29933008 2:-3.1620625 
100 1:0.17382031 2:-1.9191875 
100 1:0.16448242 2:-2.1161875 
100 1:0.37798242 2:-5.36075 
100 1:0.35523242 2:-5.1198125 
100 1:0.2519707 2:-2.6255625 
100 1:0.30011328 2:-3.26075 
100 1:0.2056543 2:-2.8788125 
100 1:0.2994707 2:-3.6604375 
100 1:0.28832227 2:-3.2866875 
100 1:0.12416602 2:-2.0903125 
100 1:0.11805469 2:-2.27 
100 1:0.17107227 2:-1.879375 
100 1:0.26833398 2:-4.8129375 
100 1:0.17469141 2:-2.1999375 
100 1:0.18063281 2:-1.7966875 
100 1:0.15491016 2:-3.04925 
100 1:0.23418945 2:-3.1060625 
100 1:0.34679102 2:-4.3859375 
100 1:0.18732031 2:-3.1871875 
100 1:0.24810742 2:-2.2230625 
100 1:0.20545117 2:-3.250625 
100 1:0.20155859 2:-2.3331875 
100 1:0.34156445 2:-3.5378125 
100 1:0.37650977 2:-3.31375 
100 1:0.35983789 2:-4.137 
100 1:0.18253516 2:-3.388375 
100 1:0.31178516 2:-2.6841875 
100 1:0.28626953 2:-2.63325 
100 1:0.3564082 2:-4.6351875 
100 1:0.29650781 2:-3.8868125 
100 1:0.31982812 2:-5.0585 
100 1:0.30227734 2:-2.2331875 
100 1:0.28037109 2:-1.59875 
100 1:0.21647656 2:-1.9361875 
100 1:0.24942188 2:-1.6803125 
100 1:0.25853125 2:-4.44175 
100 1:0.21929688 2:-1.9210625 
100 1:0.3401875 2:-1.4686875 
100 1:0.32116602 2:-1.6766875 
100 1:0.23394336 2:-2.904 
100 1:0.2692793 2:-4.3863125 
100 1:0.28656836 2:-5.2745 
100 1:0.34270508 2:-2.6396875 
100 1:0.22915234 2:-1.374375 
100 1:0.33480664 2:-2.5214375 
100 1:0.27562891 2:-3.6761875 
100 1:0.28976953 2:-3.163375 
100 1:0.34318555 2:-4.044125 
100 1:0.26531055 2:-4.804 
100 1:0.26812109 2:-3.9265625 
100 1:0.241125 2:-3.359 
100 1:0.35424609 2:-4.1588125 
100 1:0.1582793 2:-2.42875 
100 1:0.2905 2:-5.1194375 
100 1:0.20248633 2:-1.470125 
100 1:0.21135742 2:-2.489 
100 1:0.31603125 2:-3.776875 
100 1:0.23958398 2:-2.7159375 
100 1:0.34157617 2:-4.2260625 
100 1:0.36369141 2:-2.1930625 
100 1:0.32398242 2:-3.5039375 
100 1:0.20150586 2:-2.223875 
100 1:0.21023242 2:-3.081125 
100 1:0.38706445 2:-4.7500625 
100 1:0.25750977 2:-2.2086875 
100 1:0.3180957 2:-4.3368125 
100 1:0.31791016 2:-3.7708125 
100 1:0.48707422 2:-3.45225 
100 1:0.3085 2:-4.161875 
100 1:0.26771875 2:-2.972875 
100 1:0.22813086 2:-2.677875 
100 1:0.40599219 2:-2.685625 
100 1:0.27122852 2:-3.7273125 
100 1:0.20182617 2:-3.198125 
100 1:0.24357227 2:-2.9170625 
100 1:0.42968359 2:-4.415625 
100 1:0.27746094 2:-4.6858125 
100 1:0.16998047 2:-2.7985625 
100 1:0.11469336 2:-1.1860625 
100 1:0.34663867 2:-2.43325 
100 1:0.30842383 2:-5.3401875 
100 1:0.30995703 2:-2.99925 
100 1:0.36791797 2:-1.7798125 
100 1:0.38985742 2:-2.2789375 
100 1:0.32626953 2:-3.5511875 
100 1:0.2986543 2:-4.975125 
100 1:0.1933457 2:-2.478125 
100 1:0.19559961 2:-2.8805625 
100 1:0.22288086 2:-0.879125 
100 1:0.22076758 2:-3.50925 
100 1:0.44749609 2:-3.6575625 
100 1:0.18795117 2:-2.6435 
100 1:0.21619336 2:-3.8670625 
100 1:0.16503906 2:-2.1281875 
100 1:0.27644531 2:-2.738125 
100 1:0.21367188 2:-3.5629375 
100 1:0.22887305 2:-3.4574375 
100 1:0.23996094 2:-4.4979375 
100 1:0.34984961 2:-4.391 
100 1:0.29217773 2:-3.0855625 
100 1:0.45689844 2:-4.434625 
100 1:0.43435742 2:-3.4658125 
100 1:0.18168164 2:-1.866875 
100 1:0.1979668 2:-3.116375 
100 1:0.20913672 2:-3.9043125 
100 1:0.20894531 2:-4.481875 
100 1:0.22959961 2:-2.5274375 
100 1:0.24679883 2:-3.1264375 
100 1:0.27471484 2:-2.5206875 
100 1:0.32786133 2:-4.434 
100 1:0.30963086 2:-2.8083125 
100 1:0.38985547 2:-3.799625 
100 1:0.21798437 2:-2.28275 
100 1:0.26881055 2:-3.0364375 
100 1:0.20781641 2:-1.73425 
100 1:0.32364258 2:-0.9266875 
100 1:0.18230469 2:-3.516875 
100 1:0.20025195 2:-2.91475 
100 1:0.19434375 2:-2.10675 
100 1:0.17934961 2:-4.0168125 
100 1:0.23202734 2:-1.8263125 
100 1:0.29225195 2:-2.52325 
100 1:0.19449023 2:-2.5605 
100 1:0.22368359 2:-2.012125 
100 1:0.20332227 2:-4.2685625 
100 1:0.22722266 2:-2.2946875 
100 1:0.26252344 2:-3.743625 
100 1:0.17598047 2:-3.4860625 
100 1:0.29560156 2:-2.88125 
100 1:0.33454297 2:-4.7880625 
100 1:0.33392969 2:-4.0231875 
100 1:0.30508789 2:-5.8201875 
100 1:0.26403125 2:-4.804125 
100 1:0.19893359 2:-3.0593125 
100 1:0.25470508 2:-0.922875 
100 1:0.42402148 2:-4.7025625 
100 1:0.38944922 2:-2.8925625 
100 1:0.26929297 2:-2.8614375 
100 1:0.27592773 2:-3.5386875 
100 1:0.26537109 2:-3.0890625 
100 1:0.38280273 2:-4.365125 
100 1:0.23808984 2:-4.31375 
100 1:0.22843164 2:-2.9856875 
100 1:0.33358984 2:-2.0735 
100 1:0.47258203 2:-5.1478125 
100 1:0.27886328 2:-2.8150625 
100 1:0.33678711 2:-3.9640625 
100 1:0.24440234 2:-2.9349375 
100 1:0.29697656 2:-3.7760625 
100 1:0.25325586 2:-2.34125 
100 1:0.23811523 2:-3.25 
100 1:0.25968164 2:-4.701 
100 1:0.25855664 2:-4.6235625 
100 1:0.19732812 2:-3.4299375 
100 1:0.39165625 2:-3.201875 
100 1:0.23148828 2:-3.603875 
100 1:0.38961328 2:-2.5674375 
100 1:0.53747656 2:-5.9125 
100 1:0.49851172 2:-4.012375 
100 1:0.34680664 2:-2.6586875 
100 1:0.32651172 2:-2.089 
100 1:0.23910742 2:-3.884375 
100 1:0.22402539 2:-2.560375 
100 1:0.19187109 2:-2.8835625 
100 1:0.25475977 2:-3.0795 
100 1:0.34861719 2:-3.627625 
100 1:0.26051563 2:-3.0916875 
100 1:0.26091406 2:-2.994125 
100 1:0.18579297 2:-1.535625 
100 1:0.27365625 2:-5.3413125 
100 1:0.4163418 2:-3.113875 
100 1:0.25458203 2:-3.885375 
100 1:0.17887109 2:-3.1995625 
100 1:0.16845703 2:-3.3035 
100 1:0.1959375 2:-2.11625 
100 1:0.23158594 2:-3.2494375 
100 1:0.11993555 2:-1.763125 
100 1:0.19563672 2:-3.308 
100 1:0.34460352 2:-4.310625 
100 1:0.27666992 2:-2.86875 
100 1:0.18776562 2:-4.5545625 
100 1:0.22798828 2:-2.3349375 
100 1:0.22554688 2:-3.4891875 
100 1:0.20121484 2:-2.59925 
100 1:0.20608203 2:-3.458125 
100 1:0.20105078 2:-2.6285625 
100 1:0.30475 2:-3.782375 
100 1:0.30993359 2:-4.1353125 
100 1:0.26016406 2:-4.3838125 
100 1:0.2137168 2:-3.3163125 
100 1:0.4074082 2:-3.9875 
100 1:0.25452539 2:-1.412375 
100 1:0.27808203 2:-3.8909375 
100 1:0.24561719 2:-2.2079375 
100 1:0.28167578 2:-4.304125 
100 1:0.27562695 2:-4.340375 
100 1:0.24125 2:-3.3565 
100 1:0.23192383 2:-3.22575 
100 1:0.28276953 2:-4.7361875 
100 1:0.34100781 2:-3.5708125 
100 1:0.23352539 2:-3.975125 
100 1:0.34244141 2:-3.0976875 
100 1:0.13290039 2:-2.3090625 
100 1:0.36560547 2:-4.0115625 
100 1:0.25330078 2:-2.620125 
100 1:0.21359375 2:-2.771125 
100 1:0.32594336 2:-3.5015 
100 1:0.33538281 2:-3.271875 
100 1:0.27471094 2:-5.619875 
100 1:0.24695898 2:-2.8726875 
100 1:0.25708008 2:-4.588 
100 1:0.17051563 2:-3.0683125 
100 1:0.19397852 2:-3.848375 
100 1:0.19169922 2:-3.3955 
100 1:0.27269141 2:-2.4061875 
100 1:0.24682813 2:-3.020875 
100 1:0.21110352 2:-3.1179375 
100 1:0.31226367 2:-3.6335625 
100 1:0.3218125 2:-4.0596875 
100 1:0.34258594 2:-4.0031875 
100 1:0.3360625 2:-5.0768125 
100 1:0.18131836 2:-2.6103125 
100 1:0.16165234 2:-2.727625 
100 1:0.2047832 2:-4.6410625 
100 1:0.20130273 2:-2.4938125 
100 1:0.252875 2:-4.820875 
100 1:0.28405273 2:-2.7609375 
100 1:0.20524805 2:-3.2940625 
100 1:0.23007227 2:-3.1764375 
100 1:0.22306445 2:-2.1304375 
100 1:0.26711914 2:-3.2993125 
100 1:0.24388867 2:-4.0931875 
100 1:0.28783594 2:-4.0601875 
100 1:0.15414062 2:-2.2021875 
100 1:0.22633984 2:-2.71225 
100 1:0.24400781 2:-3.856625 
100 1:0.23644727 2:-3.2451875 
100 1:0.29218359 2:-3.6641875 
100 1:0.28443359 2:-2.0958125 
100 1:0.23073047 2:-1.6185625 
100 1:0.36822461 2:-3.207625 
100 1:0.2292832 2:-3.793375 
100 1:0.23611133 2:-4.131375 
100 1:0.43701758 2:-4.488375 
100 1:0.38616211 2:-3.214625 
100 1:0.31565234 2:-4.6780625 
100 1:0.19752148 2:-2.3913125 
100 1:0.22680664 2:-3.8293125 
100 1:0.17201758 2:-2.700875 
100 1:0.30742383 2:-3.268875 
100 1:0.27598047 2:-3.708 
100 1:0.29252734 2:-2.577 
100 1:0.27103711 2:-3.3648125 
100 1:0.32322656 2:-3.5009375 
100 1:0.22158984 2:-3.21225 
100 1:0.23028906 2:-4.82625 
100 1:0.17536328 2:-3.52325 
100 1:0.24296484 2:-4.9265625 
100 1:0.20635547 2:-3.31375 
100 1:0.20316992 2:-3.5863125 
100 1:0.34807617 2:-3.3745 
100 1:0.23117383 2:-1.6263125 
100 1:0.17340039 2:-2.8970625 
100 1:0.1824375 2:-2.253375 
100 1:0.22170898 2:-2.994125 
100 1:0.2059375 2:-3.43675 
100 1:0.18333789 2:-2.972125 
100 1:0.32995703 2:-5.0885625 
100 1:0.34518164 2:-3.089625 
100 1:0.21728125 2:-3.6040625 
100 1:0.24790234 2:-2.0054375 
100 1:0.24279883 2:-4.3206875 
100 1:0.16273437 2:-3.362 
100 1:0.14829883 2:-3.12725 
100 1:0.28289062 2:-4.6854375 
100 1:0.29769922 2:-3.3219375 
100 1:0.26974414 2:-2.4686875 
100 1:0.41063281 2:-3.0335 
100 1:0.27291406 2:-4.54875 
100 1:0.33769336 2:-4.9349375 
100 1:0.37672852 2:-2.83925 
100 1:0.27688086 2:-3.00525 
100 1:0.34779297 2:-3.0171875 
100 1:0.23342188 2:-3.4863125 
100 1:0.28263867 2:-4.5860625 
100 1:0.3217832 2:-2.419625 
100 1:0.39533594 2:-6.7176875 
100 1:0.28213672 2:-5.9331875 
100 1:0.32939453 2:-4.4934375 
100 1:0.32936133 2:-2.6848125 
100 1:0.32199414 2:-3.3899375 
100 1:0.21166602 2:-4.4863125 
100 1:0.28295508 2:-0.9159375 
100 1:0.28249219 2:-5.382 
100 1:0.37358398 2:-1.4289375 
100 1:0.45644531 2:-5.909 
100 1:0.28070703 2:-3.386625 
100 1:0.40866992 2:-6.1975625 
100 1:0.25119922 2:-4.5901875 
100 1:0.35639844 2:-5.66275 
100 1:0.29777344 2:-3.685375 
100 1:0.21851953 2:-2.33275 
100 1:0.32717578 2:-3.737625 
100 1:0.28992578 2:-2.24675 
100 1:0.35313672 2:-3.7525625 
100 1:0.24664258 2:-2.0425625 
100 1:0.38183594 2:-2.5176875 
100 1:0.36061719 2:-4.7583125 
100 1:0.24798438 2:-1.645375 
100 1:0.26118359 2:-3.87125 
100 1:0.16975977 2:-3.0816875 
100 1:0.33693945 2:-3.259875 
100 1:0.25019141 2:-3.5898125 
100 1:0.29958203 2:-3.055375 
100 1:0.23005273 2:-3.1355625 
100 1:0.26474414 2:-4.135375 
100 1:0.39456641 2:-5.40375 
100 1:0.33640234 2:-3.262875 
100 1:0.31878516 2:-2.9740625 
100 1:0.19802344 2:-3.217 
100 1:0.18999219 2:-2.8030625 
100 1:0.48124219 2:-4.2619375 
100 1:0.39850391 2:-5.1421875 
100 1:0.29498828 2:-3.6255 
100 1:0.22382227 2:-3.1024375 
100 1:0.63630273 2:-3.811125 
100 1:0.39998242 2:-5.83025 
100 1:0.30944727 2:-4.920875 
100 1:0.38100195 2:-4.0913125 
100 1:0.19657227 2:-2.5599375 
100 1:0.28523633 2:-5.0523125 
100 1:0.30372656 2:-3.7325 
100 1:0.34957617 2:-4.8681875 
100 1:0.22933008 2:-1.4585 
100 1:0.20953125 2:-2.31975 
100 1:0.33252148 2:-2.671125 
100 1:0.33732617 2:-2.0031875 
100 1:0.24621484 2:-2.1268125 
100 1:0.26848047 2:-2.389375 
100 1:0.20867188 2:-2.972625 
100 1:0.26129297 2:-3.4439375 
100 1:0.36631055 2:-4.4484375 
100 1:0.21107031 2:-2.5110625 
100 1:0.24078906 2:-3.714875 
100 1:0.36097656 2:-4.47375 
100 1:0.22273828 2:-3.67025 
100 1:0.21485938 2:-2.81125 
100 1:0.15041211 2:-2.840125 
100 1:0.26586328 2:-1.8378125 
100 1:0.16663672 2:-0.9226875 
100 1:0.33104102 2:-2.396 
100 1:0.24013281 2:-3.9851875 
100 1:0.29282812 2:-3.0000625 
100 1:0.21201367 2:-2.6100625 
100 1:0.25363281 2:-2.1921875 
100 1:0.31439063 2:-1.372 
100 1:0.32114258 2:-3.879125 
100 1:0.34213672 2:-2.21525 
100 1:0.31833984 2:-3.9101875 
100 1:0.18915625 2:-2.730375 
100 1:0.2424082 2:-4.52975 
100 1:0.12989258 2:-2.002875 
100 1:0.16420898 2:-2.2751875 
100 1:0.35279102 2:-1.1444375 
100 1:0.37254492 2:-3.54475 
100 1:0.32970117 2:-4.3779375 
100 1:0.32062891 2:-3.608625 
100 1:0.23587695 2:-3.104625 
100 1:0.20524414 2:-2.742625 
100 1:0.34828516 2:-4.4009375 
100 1:0.4075293 2:-3.602375 
100 1:0.27020117 2:-4.633875 
100 1:0.34442578 2:-4.14075 
100 1:0.28167188 2:-1.3150625 
100 1:0.33244727 2:-5.4505 
100 1:0.25854297 2:-1.9469375 
100 1:0.28335937 2:-5.64725 
100 1:0.21907617 2:-2.309 
100 1:0.20453516 2:-2.7575 
100 1:0.24589844 2:-2.381375 
100 1:0.38547461 2:-3.8594375 
100 1:0.18537305 2:-2.150125 
100 1:0.2485918 2:-3.072625 
100 1:0.2670332 2:-4.2991875 
100 1:0.32821484 2:-3.377375 
100 1:0.27573242 2:-2.024875 
100 1:0.27304883 2:-2.7235625 
100 1:0.35416211 2:-5.13225 
100 1:0.2853125 2:-2.308875 
100 1:0.35437891 2:-3.67175 
100 1:0.48145117 2:-3.388 
100 1:0.27879883 2:-4.7460625 
100 1:0.19296289 2:-2.1853125 
100 1:0.27455664 2:-1.5620625 
100 1:0.24530078 2:-2.4893125 
100 1:0.31470898 2:-5.022375 
100 1:0.37425977 2:-6.9378125 
100 1:0.18386523 2:-2.3635 
100 1:0.22955859 2:-3.2878125 
100 1:0.20196094 2:-2.5460625 
100 1:0.19316602 2:-1.945125 
100 1:0.24685352 2:-3.0428125 
100 1:0.24696484 2:-2.446625 
100 1:0.26777344 2:-3.47225 
100 1:0.25980469 2:-4.1055 
100 1:0.17983789 2:-2.21075 
100 1:0.44936328 2:-4.8013125 
100 1:0.41378516 2:-2.7640625 
100 1:0.3052793 2:-3.3136875 
100 1:0.20828906 2:-3.446375 
100 1:0.16669336 2:-3.11175 
100 1:0.24243945 2:-2.4279375 
100 1:0.55966797 2:-2.449125 
100 1:0.27969727 2:-5.0708125 
100 1:0.34248828 2:-3.007375 
100 1:0.26470703 2:-3.743375 
100 1:0.2560957 2:-3.5296875 
100 1:0.21010352 2:-2.54275 
100 1:0.33385547 2:-3.1575 
100 1:0.22311914 2:-3.4271875 
100 1:0.40074023 2:-6.8451875 
100 1:0.16269141 2:-2.1070625 
100 1:0.33954297 2:-2.632375 
100 1:0.25723242 2:-3.903625 
100 1:0.41551562 2:-4.2259375 
100 1:0.2454043 2:-2.608125 
100 1:0.16996094 2:-2.7726875 
100 1:0.27501172 2:-4.4645625 
100 1:0.33283984 2:-3.3153125 
100 1:0.30686133 2:-6.5006875 
100 1:0.26757422 2:-3.5734375 
100 1:0.27630664 2:-2.03475 
100 1:0.30235937 2:-5.8390625 
100 1:0.24019922 2:-3.4763125 
100 1:0.4194082 2:-4.9998125 
100 1:0.28808594 2:-2.365375 
100 1:0.3371582 2:-3.8149375 
100 1:0.29001562 2:-3.314 
100 1:0.29567383 2:-3.2821875 
100 1:0.2689082 2:-3.412375 
100 1:0.24613477 2:-3.1555 
100 1:0.14553125 2:-1.92825 
100 1:0.25189063 2:-3.2545 
-100 1:0.28954102 2:-4.644125 
-100 1:0.22463867 2:-4.466625 
-100 1:0.29141602 2:-3.130625 
-100 1:0.39012109 2:-2.077125 
-100 1:0.32394141 2:-4.4250625 
-100 1:0.30213477 2:-3.89275 
-100 1:0.31656641 2:-2.7206875 
-100 1:0.31361914 2:-3.78425 
-100 1:0.30116602 2:-3.454875 
-100 1:0.18338477 2:-1.7868125 
-100 1:0.21601367 2:-2.9423125 
-100 1:0.2812207 2:-4.057375 
-100 1:0.30149805 2:-3.2504375 
-100 1:0.20792578 2:-2.2953125 
-100 1:0.31355664 2:-4.3781875 
-100 1:0.25545898 2:-3.367125 
-100 1:0.39345312 2:-2.227625 
-100 1:0.28839453 2:-3.682625 
-100 1:0.17282227 2:-3.03875 
-100 1:0.2848457 2:-4.2438125 
-100 1:0.29000391 2:-4.12425 
-100 1:0.31611523 2:-3.318625 
-100 1:0.20691602 2:-3.74675 
-100 1:0.26169922 2:-2.8788125 
-100 1:0.22383594 2:-2.1114375 
-100 1:0.32070508 2:-4.3083125 
-100 1:0.35275195 2:-5.096875 
-100 1:0.29344141 2:-5.347125 
-100 1:0.33624805 2:-2.221875 
-100 1:0.10011719 2:-1.7415625 
-19.35442562359334 1:0.18330469 2:-1.0176875 
-100 1:0.29919727 2:-3.645375 
-54.90795575279382 1:0.44145898 2:-2.5428125 
-2.387027988830711 1:0.20066016 2:-0.89125 
-100 1:0.42039648 2:-3.2233125 
-100 1:0.19665234 2:-1.8435 
-100 1:0.27144727 2:-4.3475 
-100 1:0.18727148 2:-2.3613125 
-100 1:0.25310938 2:-3.3103125 
-100 1:0.35231641 2:-2.5646875 
-100 1:0.26806055 2:-2.1526875 
-100 1:0.27436719 2:-2.3890625 
-100 1:0.22574414 2:-2.3684375 
-100 1:0.26625781 2:-5.1054375 
-100 1:0.31919531 2:-2.3588125 
-5.644799350758145 1:0.28319336 2:-3.9333125 
-100 1:0.33800977 2:-5.073625 
-100 1:0.2579707 2:-2.818 
-100 1:0.29736914 2:-3.4948125 
-100 1:0.32033008 2:-5.8004375 
-100 1:0.21820898 2:-2.6646875 
-100 1:0.28378711 2:-2.2425 
-100 1:0.35166406 2:-3.349 
-100 1:0.27430469 2:-2.704875 
-100 1:0.2959082 2:-2.391625 
-100 1:0.33640039 2:-2.6640625 
-100 1:0.35373438 2:-2.158625 
-100 1:0.1092793 2:-0.1195 
-100 1:0.2551543 2:-2.345875 
-100 1:0.3046875 2:-2.61025 
-100 1:0.30416992 2:-2.0409375 
-100 1:0.15304688 2:-2.4975 
-10.22506486592314 1:0.19811523 2:-0.6894375 
-100 1:0.18969141 2:-2.3571875 
-100 1:0.35352734 2:-2.3345625 
-100 1:0.23729883 2:-1.4004375 
-100 1:0.33769336 2:-4.283375 
-97.94962969646703 1:0.16104883 2:-3.1120625 
-100 1:0.2591543 2:-1.780875 
-100 1:0.32707617 2:-5.3795 
-100 1:0.31063477 2:-3.77025 
-100 1:0.28365039 2:-2.8665 
-100 1:0.22990625 2:-4.26575 
-100 1:0.4319082 2:-4.9931875 
-100 1:0.33716992 2:-1.6179375 
-100 1:0.25826562 2:-1.6623125 
-100 1:0.35771094 2:-4.2160625 
-100 1:0.28666016 2:-4.5425625 
-100 1:0.24601367 2:-2.191 
-100 1:0.16482422 2:-2.99575 
-100 1:0.29109961 2:-4.8304375 
-100 1:0.16550391 2:-3.13475 
-100 1:0.21495703 2:-1.86225 
-100 1:0.27693164 2:-3.3294375 
-100 1:0.32582617 2:-5.0324375 
-100 1:0.17890234 2:-3.84675 
-100 1:0.13395313 2:-2.58675 
-100 1:0.25859961 2:-4.34675 
-100 1:0.16411133 2:-2.5801875 
-100 1:0.16185547 2:-1.519125 
-100 1:0.1925 2:-3.0773125 
-100 1:0.22388477 2:-3.3609375 
-100 1:0.3485918 2:-4.0465625 
-100 1:0.1559375 2:-0.8766875 
-100 1:0.44136914 2:-5.2418125 
-100 1:0.35276562 2:-4.7933125 
-59.61163998210525 1:0.23243945 2:-3.1105625 
-100 1:0.20505078 2:-3.0623125 
-100 1:0.15789453 2:-2.7088125 
-100 1:0.18468164 2:-3.602 
-100 1:0.29859766 2:-3.285875 
-100 1:0.2555332 2:-4.80425 
-100 1:0.18543555 2:-3.180375 
-100 1:0.21226953 2:-3.20225 
-100 1:0.22222266 2:-3.8930625 
-100 1:0.18949023 2:-2.7203125 
-100 1:0.21916016 2:-2.79625 
-100 1:0.12272852 2:-2.4301875 
-100 1:0.3301582 2:-4.557875 
-100 1:0.37054687 2:-5.4014375 
-100 1:0.40966797 2:-3.993875 
-100 1:0.28426953 2:-2.9063125 
-98.9053931547423 1:0.32357812 2:-3.277 
-100 1:0.30735547 2:-1.987125 
-100 1:0.43250195 2:-4.395375 
-100 1:0.27411523 2:-3.071875 
-100 1:0.22775977 2:-4.160375 
-100 1:0.31275195 2:-2.2413125 
-100 1:0.23359961 2:-3.19325 
-100 1:0.14280859 2:-2.5488125 
-100 1:0.32233594 2:-3.5528125 
-100 1:0.22999023 2:-4.06075 
-100 1:0.33055664 2:-5.0335 
-100 1:0.35747656 2:-4.5548125 
-100 1:0.31426953 2:-4.364125 
-100 1:0.25239648 2:-4.017875 
-100 1:0.30611523 2:-2.9101875 
-100 1:0.30395312 2:-2.4815625 
-100 1:0.36775195 2:-2.4995625 
-100 1:0.25672656 2:-1.856 
-100 1:0.16949023 2:-1.1785 
-100 1:0.40182227 2:-3.1219375 
-100 1:0.32571484 2:-2.687 
-100 1:0.27933008 2:-2.861125 
-65.80565702253557 1:0.22255859 2:-2.02525 
-100 1:0.23245703 2:-1.195625 
-100 1:0.35457227 2:-3.133 
-100 1:0.35795508 2:-2.40525 
-100 1:0.33180273 2:-4.425125 
-100 1:0.30118164 2:-2.975875 
-100 1:0.25343945 2:-3.0164375 
-100 1:0.19023633 2:-2.2865 
-100 1:0.14889258 2:-2.6009375 
-100 1:0.27866992 2:-3.1021875 
-100 1:0.19649414 2:-3.4255 
-100 1:0.34758984 2:-4.6420625 
-100 1:0.31051172 2:-4.055625 
-100 1:0.31465625 2:-3.7899375 
-100 1:0.22727734 2:-3.095375 
-100 1:0.1608125 2:-3.3086875 
-100 1:0.17264844 2:-2.9095625 
-100 1:0.20287305 2:-3.1580625 
-100 1:0.17018359 2:-2.38025 
-100 1:0.22986133 2:-2.7025625 
-100 1:0.37021289 2:-3.356375 
-100 1:0.24349805 2:-2.2509375 
-100 1:0.33543164 2:-4.2331875 
-100 1:0.20337109 2:-3.343875 
-36.40501004186306 1:0.28279492 2:-1.9401875 
-100 1:0.29967383 2:-4.1315625 
-100 1:0.36720898 2:-2.2955 
-100 1:0.27999414 2:-2.9005 
-100 1:0.27678516 2:-4.6961875 
-100 1:0.17999219 2:-3.5201875 
-100 1:0.30563672 2:-5.15925 
-100 1:0.36126172 2:-3.423875 
-100 1:0.17897656 2:-3.216625 
-100 1:0.16884961 2:-3.4281875 
-100 1:0.17573242 2:-3.1003125 
-100 1:0.29137109 2:-5.3916875 
-100 1:0.37858984 2:-2.6868125 
-100 1:0.29455273 2:-1.8113125 
-100 1:0.19631641 2:-3.776 
-100 1:0.20250391 2:-3.0280625 
-100 1:0.1800625 2:-2.518875 
-100 1:0.26593359 2:-3.9913125 
-100 1:0.33136133 2:-4.273 
-100 1:0.21296484 2:-1.6684375 
-100 1:0.43891406 2:-2.859 
-100 1:0.36124023 2:-3.3540625 
-55.88748572273305 1:0.36457422 2:-5.483875 
-100 1:0.26485742 2:-2.1836875 
-100 1:0.38073633 2:-3.9090625 
-100 1:0.28158398 2:-3.5241875 
-100 1:0.16944336 2:-2.302875 
-100 1:0.33193359 2:-3.9718125 
-100 1:0.24345117 2:-3.248125 
-100 1:0.44560547 2:-3.518625 
-100 1:0.32344922 2:-5.2779375 
-100 1:0.40678711 2:-3.3389375 
-100 1:0.24723047 2:-4.4385 
-100 1:0.30768945 2:-2.5954375 
-100 1:0.21419336 2:-1.8233125 
-100 1:0.32263086 2:-4.926 
-0.2014737430790156 1:0.26663086 2:-3.441375 
-100 1:0.19193359 2:-1.929375 
-100 1:0.30986328 2:-2.678625 
-100 1:0.1796543 2:-4.172875 
-100 1:0.29772266 2:-2.9845 
-100 1:0.32907812 2:-1.86675 
-100 1:0.28352734 2:-3.212875 
-13.08923953350825 1:0.23229883 2:-2.5465625 
-100 1:0.18485742 2:-3.0564375 
-100 1:0.26034961 2:-2.928375 
-100 1:0.3802207 2:-3.17925 
-100 1:0.26783984 2:-4.52525 
-100 1:0.20148437 2:-3.4808125 
-100 1:0.4159707 2:-2.448625 
-100 1:0.3885957 2:-2.639375 
-100 1:0.25285937 2:-4.1435625 
-100 1:0.44216406 2:-4.5275 
-100 1:0.22388477 2:-2.2773125 
-100 1:0.23153711 2:-4.829875 
-100 1:0.23161719 2:-3.56975 
-100 1:0.2800332 2:-3.6730625 
-100 1:0.30330469 2:-2.7196875 
-8.258137916370094 1:0.2444375 2:-4.2815625 
-100 1:0.15563281 2:-3.469125 
-100 1:0.26800977 2:-2.4195 
-100 1:0.25274414 2:-3.2659375 
-100 1:0.3000918 2:-3.7284375 
-100 1:0.19711133 2:-3.1739375 
-100 1:0.2971875 2:-5.19825 
-100 1:0.35126758 2:-4.4229375 
-100 1:0.20746289 2:-3.017875 
-100 1:0.38738477 2:-2.848625 
-100 1:0.23607227 2:-3.982375 
-100 1:0.24269336 2:-4.49325 
-100 1:0.18350195 2:-2.1923125 
-5.984352042935102 1:0.26228125 2:-1.668 
-100 1:0.3324668 2:-3.562 
-100 1:0.19701367 2:-2.13925 
-100 1:0.33487109 2:-3.044875 
-100 1:0.35609766 2:-2.9411875 
-100 1:0.31833008 2:-2.2700625 
-100 1:0.23971289 2:-2.3139375 
-100 1:0.19136719 2:-3.8434375 
-100 1:0.25456445 2:-3.6688125 
-100 1:0.20848437 2:-3.6273125 
-100 1:0.3394668 2:-2.1010625 
-100 1:0.39830078 2:-2.392625 
-100 1:0.25320117 2:-3.239875 
-100 1:0.41301172 2:-4.127 
-100 1:0.18617969 2:-3.2291875 
-100 1:0.30161523 2:-4.6424375 
-100 1:0.22221094 2:-3.5665625 
-100 1:0.16998828 2:-1.1355625 
-100 1:0.17592578 2:-2.996875 
-100 1:0.32645508 2:-5.77125 
-100 1:0.20406445 2:-1.2705625 
-100 1:0.20263086 2:-3.304875 
-100 1:0.20323047 2:-3.2955625 
-100 1:0.27363867 2:-2.9935 
-100 1:0.38054102 2:-4.196375 
-100 1:0.12201367 2:-2.4213125 
-100 1:0.1847168 2:-3.0435625 
-100 1:0.30931641 2:-2.750125 
-100 1:0.37639453 2:-2.792375 
-100 1:0.21323437 2:-1.5406875 
-100 1:0.20885547 2:-2.3333125 
-100 1:0.4513125 2:-2.75075 
-100 1:0.19900977 2:-1.1204375 
-100 1:0.24414648 2:-2.412875 
-100 1:0.40728906 2:-2.4464375 
-100 1:0.1970332 2:-1.14525 
-100 1:0.15376367 2:-2.8881875 
-100 1:0.30839453 2:-3.525375 
-100 1:0.22082812 2:-2.6729375 
-100 1:0.17305469 2:-1.5033125 
-100 1:0.20646875 2:-2.1166875 
-100 1:0.17117969 2:-2.7189375 
-100 1:0.20718359 2:-3.8455625 
-18.72867908773822 1:0.17430664 2:-3.45025 
-100 1:0.17674609 2:-2.923375 
-100 1:0.17536328 2:-2.5829375 
-100 1:0.32137891 2:-4.984375 
-100 1:0.40830859 2:-5.9036875 
-100 1:0.21823438 2:-2.610625 
-100 1:0.15175 2:-2.97025 
-99.99694648073265 1:0.38328516 2:-4.62175 
-100 1:0.32691016 2:-2.5905 
-100 1:0.35916211 2:-3.00925 
-100 1:0.25084766 2:-3.399625 
-97.58971383598578 1:0.46006445 2:-4.03125 
-100 1:0.29425977 2:-3.531625 
-100 1:0.22809766 2:-2.4148125 
-100 1:0.33852344 2:-3.2181875 
-54.25515018068884 1:0.39061133 2:-3.7198125 
-100 1:0.21264844 2:-2.9796875 
-100 1:0.31517969 2:-4.672375 
-100 1:0.2605957 2:-4.3708125 
-100 1:0.28069141 2:-5.3175625 
-100 1:0.16407617 2:-2.637875 
-0.872506129503729 1:0.25576563 2:-4.5810625 
-20.26806823689882 1:0.29611914 2:-4.7405 
-100 1:0.24398438 2:-3.719375 
-100 1:0.18132617 2:-3.2220625 
-100 1:0.27832031 2:-3.4939375 
-100 1:0.23411719 2:-4.732375 
-100 1:0.20948242 2:-3.10625 
-100 1:0.18408398 2:-1.84125 
-100 1:0.26292969 2:-2.64375 
-99.61148101378247 1:0.32569141 2:-1.9805 
-100 1:0.27375977 2:-5.0396875 
-100 1:0.32245703 2:-3.907375 
-100 1:0.31895703 2:-3.3794375 
-100 1:0.16963086 2:-3.181375 
-100 1:0.25616016 2:-2.35625 
-100 1:0.40238867 2:-4.4288125 
-100 1:0.33367383 2:-4.751375 
-100 1:0.32538672 2:-5.82175 
-100 1:0.25978906 2:-1.63275 
-100 1:0.21819531 2:-2.891375 
-100 1:0.27311133 2:-4.796125 
-100 1:0.17548047 2:-3.567 
-100 1:0.21941992 2:-4.12225 
-100 1:0.26205273 2:-4.2426875 
-99.64023686140266 1:0.16750391 2:-2.8849375 
-100 1:0.29571094 2:-2.205125 
-100 1:0.33814844 2:-3.5335 
-100 1:0.38274023 2:-5.827375 
-100 1:0.28618945 2:-3.7015625 
-100 1:0.22406641 2:-3.3175 
-100 1:0.33 2:-5.3965625 
-3.795444963007691 1:0.35527734 2:-2.8031875 
-100 1:0.26166016 2:-2.042 
-100 1:0.28428125 2:-3.5425 
-100 1:0.20431055 2:-3.3575625 
-100 1:0.36563477 2:-3.1015 
-100 1:0.32287109 2:-2.40375 
-100 1:0.24892187 2:-2.3585625 
-100 1:0.22468359 2:-4.2766875 
-100 1:0.34345898 2:-3.634875 
-100 1:0.37326563 2:-4.7308125 
-0.002408941703328216 1:0.25172266 2:-5.077125 
-100 1:0.28167578 2:-3.8419375 
-100 1:0.26767578 2:-4.910625 
-100 1:0.1943125 2:-3.39925 
-100 1:0.23113867 2:-2.8440625 
-100 1:0.18658008 2:-1.3195 
-100 1:0.32640039 2:-3.9146875 
-100 1:0.31301172 2:-2.7151875 
-100 1:0.25422266 2:-2.438875 
-100 1:0.29933594 2:-5.2721875 
-100 1:0.22655664 2:-4.522125 
-100 1:0.37899609 2:-6.203375 
-38.16177814901921 1:0.21106641 2:-1.4304375 
-100 1:0.24639453 2:-3.246 
-100 1:0.37616406 2:-3.7056875 
-8.73482868553997 1:0.39700391 2:-2.647125 
-100 1:0.25590625 2:-4.9785625 
-100 1:0.38800586 2:-4.0814375 
-100 1:0.22319727 2:-3.79 
-100 1:0.2839375 2:-3.751 
-100 1:0.25346875 2:-4.811125 
-100 1:0.21389453 2:-2.7635625 
-100 1:0.4066875 2:-5.1200625 
-100 1:0.18033008 2:-2.7246875 
-100 1:0.44498437 2:-3.3908125 
-100 1:0.24638867 2:-2.7195625 
-100 1:0.23267969 2:-4.1489375 
-100 1:0.23514258 2:-3.5215 
-100 1:0.25026758 2:-2.719625 
-100 1:0.20660742 2:-3.4691875 
-100 1:0.19564844 2:-3.46 
-93.81168671582155 1:0.16279883 2:-1.3314375 
-100 1:0.22701367 2:-3.6714375 
-100 1:0.1687168 2:-1.07825 
-100 1:0.30219531 2:-2.524375 
-100 1:0.23208594 2:-4.444875 
-100 1:0.28085547 2:-3.77075 
-100 1:0.20242773 2:-2.74125 
-100 1:0.34413281 2:-2.960375 
-100 1:0.25118164 2:-5.15825 
-100 1:0.21206055 2:-1.68725 
-100 1:0.18112891 2:-2.400875 
-100 1:0.19974219 2:-2.46175 
-100 1:0.17387305 2:-3.586375 
-100 1:0.24451758 2:-2.7610625 
-100 1:0.23406836 2:-3.316875 
-100 1:0.36196094 2:-4.796 
-100 1:0.40497656 2:-2.8505625 
-100 1:0.32638281 2:-2.101875 
-100 1:0.32921094 2:-5.0735625 
-100 1:0.24328906 2:-4.71675 
-100 1:0.28778516 2:-4.2623125 
-100 1:0.27545312 2:-2.4158125 
-100 1:0.40748633 2:-4.45825 
-100 1:0.26226563 2:-4.5395 
-100 1:0.21849805 2:-2.5488125 
-100 1:0.21723047 2:-2.405125 
-100 1:0.35793945 2:-3.3578125 
-100 1:0.18877344 2:-3.624875 
-100 1:0.22366992 2:-1.713625 
-100 1:0.3560332 2:-4.8226875 
-100 1:0.3845 2:-6.7055 
-100 1:0.26119531 2:-2.6723125 
-100 1:0.29471289 2:-3.5785625 
-100 1:0.28694336 2:-2.7929375 
-100 1:0.27701758 2:-4.0153125 
-100 1:0.23787109 2:-4.0896875 
-100 1:0.19197266 2:-3.4304375 
-100 1:0.31888086 2:-3.5965625 
-100 1:0.2569082 2:-4.61875 
-100 1:0.16499609 2:-2.9005 
-100 1:0.26769531 2:-4.6426875 
-100 1:0.25650781 2:-4.108625 
-100 1:0.29880859 2:-4.723125 
-20.72311969969067 1:0.43258789 2:-3.1353125 
-100 1:0.28121875 2:-5.2725 
-100 1:0.24784766 2:-3.7591875 
-100 1:0.20846289 2:-1.83875 
-100 1:0.21699023 2:-2.6715 
-100 1:0.434875 2:-4.560125 
-100 1:0.20086914 2:-3.31725 
-100 1:0.23933203 2:-3.2325625 
-100 1:0.23986133 2:-2.677 
-100 1:0.29330469 2:-2.6145 
-100 1:0.40345508 2:-5.1710625 
-100 1:0.3658125 2:-1.961625 
-100 1:0.3132207 2:-2.439 
-100 1:0.29119141 2:-3.1743125 
-100 1:0.32254492 2:-3.2290625 
-100 1:0.31914844 2:-4.2864375 
-100 1:0.24187695 2:-2.55675 
-100 1:0.25369141 2:-3.0723125 
-100 1:0.23804687 2:-3.332625 
-100 1:0.17753906 2:-2.79 
-100 1:0.27587695 2:-3.5220625 
-100 1:0.31331641 2:-3.9036875 
-100 1:0.30251172 2:-3.3386875 
-100 1:0.36310352 2:-2.8215625 
-100 1:0.27748437 2:-4.232625 
-100 1:0.22940039 2:-3.371875 
-100 1:0.36598633 2:-2.9008125 
-100 1:0.34011523 2:-4.4020625 
-100 1:0.28536914 2:-4.698875 
-62.49635754998801 1:0.22978125 2:-3.6273125 
-100 1:0.3259375 2:-5.6773125 
-100 1:0.24066016 2:-2.2091875 
-100 1:0.25251953 2:-4.5294375 
-100 1:0.18887891 2:-3.604375 
-100 1:0.25153516 2:-2.034125 
-100 1:0.34269922 2:-4.25825 
-100 1:0.44748633 2:-3.7504375 
-100 1:0.23308594 2:-1.8355 
-100 1:0.2265332 2:-1.9818125 
-100 1:0.34263672 2:-3.112 
-100 1:0.27044922 2:-2.3269375 
-100 1:0.22826563 2:-3.2530625 
-100 1:0.29331641 2:-4.4920625 
-100 1:0.2550293 2:-2.693875 
-31.3400912885731 1:0.38989063 2:-2.975 
-100 1:0.32716602 2:-2.767 
-100 1:0.20570898 2:-3.3461875 
-100 1:0.23525781 2:-3.2718125 
-100 1:0.22480859 2:-2.255625 
-100 1:0.3448418 2:-4.1620625 
-100 1:0.4003418 2:-4.8186875 
-100 1:0.29912695 2:-3.834875 
-100 1:0.27323828 2:-3.409 
-100 1:0.39325977 2:-3.343 
-0.726728673852639 1:0.25959375 2:-4.4963125 
-100 1:0.30180859 2:-2.16275 
-100 1:0.23851953 2:-4.312625 
-100 1:0.27574414 2:-3.3558125 
-100 1:0.35397656 2:-1.859625 
-100 1:0.24998242 2:-3.8195625 
-100 1:0.24925391 2:-4.0321875 
-100 1:0.18329492 2:-3.2108125 
-100 1:0.3006875 2:-3.8331875 
-100 1:0.31645703 2:-4.6393125 
-100 1:0.21078516 2:-3.50975 
-100 1:0.38224414 2:-3.084 
-100 1:0.22916406 2:-3.683875 
-100 1:0.23586719 2:-4.0855 
-100 1:0.20561914 2:-2.3905625 
-100 1:0.17983594 2:-1.146625 
-100 1:0.2517832 2:-5.5881875 
-100 1:0.21400977 2:-3.7804375 
-100 1:0.24474805 2:-3.388625 
-100 1:0.41775391 2:-2.2223125 
-100 1:0.19230078 2:-1.6540625 
-100 1:0.3464043 2:-3.0483125 
-100 1:0.27030078 2:-1.6701875 
-100 1:0.30117773 2:-4.08525 
-100 1:0.24578125 2:-3.537125 
-100 1:0.29326953 2:-4.7504375 
-100 1:0.28746484 2:-4.5245625 
-100 1:0.18764453 2:-4.048125 
-38.08232039018644 1:0.22599414 2:-1.5581875 
-100 1:0.30881445 2:-2.2698125 
-100 1:0.29321875 2:-3.302 
-100 1:0.3137832 2:-4.3058125 
-100 1:0.2700332 2:-3.06725 
-100 1:0.24795898 2:-3.6968125 
-100 1:0.32796484 2:-5.77075 
-100 1:0.23572656 2:-3.5988125 
-100 1:0.5255957 2:-5.70775 
-100 1:0.29725 2:-3.954375 
-100 1:0.35893164 2:-4.5775 
-100 1:0.20554492 2:-3.8453125 
-100 1:0.3027832 2:-1.9758125 
-100 1:0.29420313 2:-1.9199375 
-100 1:0.24193164 2:-3.122625 
-100 1:0.40263672 2:-5.2531875 
-100 1:0.26674219 2:-3.784625 
-100 1:0.24304883 2:-3.1459375 
-100 1:0.26878906 2:-2.6270625 
-100 1:0.26645117 2:-3.9381875 
-100 1:0.21803711 2:-2.5533125 
-100 1:0.20837891 2:-3.922875 
-100 1:0.27570117 2:-2.78825 
-100 1:0.44528125 2:-3.1585 
-100 1:0.17652344 2:-2.8240625 
-100 1:0.27764062 2:-4.09275 
-100 1:0.41494922 2:-6.254125 
-100 1:0.26779102 2:-3.713875 
-100 1:0.17580078 2:-1.0739375 
-100 1:0.24606641 2:-4.011125 
-100 1:0.31855273 2:-4.2399375 
-8.298970885880307 1:0.22610742 2:-1.3413125 
-100 1:0.39016797 2:-4.9833125 
-100 1:0.27775586 2:-1.43175 
-100 1:0.29299805 2:-3.0075 
-100 1:0.42212695 2:-5.196375 
-100 1:0.35310156 2:-2.948625 
-100 1:0.39512695 2:-4.9090625 
-100 1:0.41676953 2:-3.57375 
-100 1:0.35033594 2:-2.7564375 
-100 1:0.14139258 2:-2.744625 
-100 1:0.32204492 2:-2.8611875 
-100 1:0.42836523 2:-3.6604375 
-100 1:0.51585742 2:-6.6545 
-100 1:0.33559961 2:-4.079875 
-100 1:0.32889453 2:-3.90775 
-100 1:0.37932617 2:-3.9695 
-100 1:0.39195898 2:-3.22275 
-15.53071148748321 1:0.17054102 2:-1.676875 
-100 1:0.40974609 2:-6.5911875 
-100 1:0.19191992 2:-3.187125 
-100 1:0.40747852 2:-2.684 
-100 1:0.13687305 2:-2.3974375 
-100 1:0.32591797 2:-3.0913125 
-100 1:0.28278906 2:-2.4069375 
-100 1:0.27977539 2:-2.3631875 
-100 1:0.39264844 2:-5.5818125 
-68.64207053193871 1:0.43819336 2:-6.483 
-100 1:0.35510156 2:-5.9024375 
-100 1:0.36439648 2:-3.8094375 
-100 1:0.35101172 2:-3.5235 
-100 1:0.27653906 2:-1.923375 
-100 1:0.31548633 2:-4.1495 
-100 1:0.22942383 2:-3.4251875 
-100 1:0.1554707 2:-1.6245625 
-100 1:0.27089063 2:-2.5478125 
-84.07340777236547 1:0.15616992 2:-2.4105 
-100 1:0.24126758 2:-2.4735 
-100 1:0.35942578 2:-2.83575 
-100 1:0.41975977 2:-3.188 
-100 1:0.27514453 2:-3.4434375 
-100 1:0.365375 2:-2.8435 
-100 1:0.44399023 2:-4.749625 
-100 1:0.39370508 2:-2.9211875 
